/*!
 * The following copyright notice may not be removed under any circumstances.
 * 
 * Copyright:
 * Digitized data © 2007 Ascender Corporation. All rights reserved.
 * 
 * Trademark:
 * Liberation is a trademark of Red Hat, Inc. registered in U.S. Patent and
 * Trademark Office and certain other jurisdictions.
 * 
 * Manufacturer:
 * Ascender Corporation
 * 
 * Designer:
 * Steve Matteson
 * 
 * Vendor URL:
 * http://www.ascendercorp.com/
 * 
 * License information:
 * http://www.ascendercorp.com/liberation.html
 */
Cufon.registerFont({"w":1139,"face":{"font-family":"Liberation Sans","font-weight":700,"font-stretch":"normal","units-per-em":"2048","panose-1":"2 11 7 4 2 2 2 2 2 4","ascent":"1638","descent":"-410","x-height":"20","bbox":"-32 -1520 1931 455","underline-thickness":"215","underline-position":"-110","unicode-range":"U+0020-U+007E"},"glyphs":{" ":{"w":569,"k":{"Y":37,"A":76}},"\u00a0":{"w":569},"!":{"d":"455,-426r-230,0r-32,-983r294,0xm193,0r0,-270r288,0r0,270r-288,0","w":682},"\"":{"d":"807,-898r-219,0r-27,-511r275,0xm381,-898r-219,0r-27,-511r273,0","w":971},"#":{"d":"909,-862r-69,332r215,0r0,149r-246,0r-82,381r-156,0r80,-381r-307,0r-80,381r-153,0r79,-381r-155,0r0,-149r188,0r70,-332r-207,0r0,-148r238,0r84,-385r153,0r-82,385r307,0r84,-385r156,0r-84,385r164,0r0,148r-197,0xm449,-862r-72,332r309,0r70,-332r-307,0"},"$":{"d":"629,-838v247,54,481,125,481,426v0,279,-201,376,-481,389r0,175r-109,0r0,-172v-289,-8,-446,-139,-493,-388r256,-47v21,136,90,216,237,228r0,-391v-232,-52,-448,-127,-448,-412v0,-259,196,-342,448,-356r0,-134r109,0r0,134v267,5,397,128,446,350r-264,39v-20,-112,-70,-177,-182,-193r0,352xm520,-1194v-109,9,-184,49,-186,160v-2,122,95,140,186,172r0,-332xm629,-227v129,-10,219,-52,221,-181v2,-138,-116,-154,-221,-186r0,367"},"%":{"d":"1417,-881v260,0,350,176,350,449v-1,270,-98,448,-354,448v-258,0,-353,-178,-354,-448v0,-277,92,-449,358,-449xm552,0r-206,0r920,-1409r209,0xm51,-977v-1,-277,92,-448,357,-448v260,0,352,175,352,448v-1,271,-99,449,-357,449v-256,0,-351,-179,-352,-449xm1415,-141v133,0,137,-145,137,-291v0,-127,-3,-239,-76,-282v-60,-35,-145,-6,-166,48v-23,60,-34,137,-34,234v0,149,2,291,139,291xm406,-684v135,0,137,-146,137,-293v0,-126,-5,-232,-76,-279v-16,-10,-36,-14,-59,-14v-141,5,-142,143,-142,293v0,149,3,293,140,293","w":1821},"&":{"d":"575,20v-293,0,-485,-123,-485,-405v0,-244,167,-343,338,-428v-37,-75,-74,-178,-74,-279v0,-223,144,-325,377,-325v212,0,363,89,363,297v0,173,-127,246,-246,314v-47,26,-96,50,-146,73v70,123,151,233,244,336v72,-109,121,-224,158,-363r209,70v-47,161,-108,293,-193,420v66,66,186,92,295,57r0,203v-166,59,-367,-13,-461,-99v-95,71,-213,129,-379,129xm729,-1247v-139,0,-186,128,-143,255v11,33,24,65,39,95v88,-39,180,-75,226,-151v55,-91,-12,-199,-122,-199xm344,-389v0,144,93,217,242,219v84,2,159,-39,202,-76v-102,-114,-196,-239,-272,-377v-96,47,-172,108,-172,234","w":1479},"'":{"d":"354,-898r-219,0r-26,-511r272,0","w":487},"(":{"d":"379,-530v0,421,126,699,301,955r-281,0v-176,-253,-297,-534,-297,-956v0,-421,122,-700,297,-953r281,0v-176,255,-301,534,-301,954","w":682},")":{"d":"580,-531v0,421,-121,703,-297,956r-281,0v175,-257,301,-533,301,-955v0,-420,-126,-699,-301,-954r281,0v176,253,297,531,297,953","w":682},"*":{"d":"492,-1135r235,-104r68,197r-250,61r186,213r-184,121r-146,-252r-149,252r-186,-123r190,-211r-250,-61r68,-197r239,104r-18,-274r215,0","w":797},"+":{"d":"711,-569r0,408r-226,0r0,-408r-399,0r0,-224r399,0r0,-408r226,0r0,408r402,0r0,224r-402,0","w":1196},",":{"d":"432,-66v1,167,-39,288,-108,383r-185,0v65,-84,127,-177,133,-317r-129,0r0,-305r289,0r0,239","w":569},"-":{"d":"80,-409r0,-244r520,0r0,244r-520,0","w":682},"\u00ad":{"d":"80,-409r0,-244r520,0r0,244r-520,0","w":682},".":{"d":"139,0r0,-305r289,0r0,305r-289,0","w":569},"\/":{"d":"20,41r291,-1525r238,0r-286,1525r-243,0","w":569},"0":{"d":"1018,-1058v45,173,48,519,0,694v-63,228,-184,384,-453,384v-386,0,-481,-318,-484,-725v-2,-254,37,-442,136,-575v77,-103,191,-150,356,-150v265,0,386,146,445,372xm725,-308v60,-139,57,-454,37,-644v-15,-145,-43,-258,-191,-258v-152,0,-184,113,-199,260v-19,189,-22,502,36,642v29,70,71,107,159,107v86,0,129,-38,158,-107"},"1":{"d":"129,0r0,-209r349,0r0,-961r-338,211r0,-221r353,-229r266,0r0,1200r323,0r0,209r-953,0","k":{"1":113}},"2":{"d":"563,-1430v285,0,472,118,472,396v0,227,-142,347,-275,453r-144,115v-82,69,-170,137,-213,235r654,0r0,231r-986,0r0,-195v117,-261,353,-412,545,-593v66,-62,132,-126,134,-234v2,-124,-63,-184,-185,-184v-130,0,-181,74,-199,194r-283,-16v34,-255,187,-402,480,-402"},"3":{"d":"728,-721v197,25,337,120,337,330v0,292,-199,414,-500,414v-309,0,-480,-141,-518,-406r286,-25v18,125,87,203,231,203v135,0,214,-66,213,-203v-2,-185,-178,-200,-368,-194r0,-227v181,8,335,-16,335,-191v0,-118,-69,-186,-190,-186v-119,0,-193,71,-202,184r-281,-20v35,-253,208,-388,488,-388v278,0,470,111,470,375v0,202,-125,294,-301,330r0,4"},"4":{"d":"940,-287r0,287r-268,0r0,-287r-641,0r0,-211r595,-911r314,0r0,913r188,0r0,209r-188,0xm672,-496r2,-562r7,-97v-126,233,-282,438,-421,659r412,0"},"5":{"d":"385,-844v58,-49,145,-92,255,-90v220,3,352,111,412,276v41,114,40,271,-4,384v-71,183,-233,294,-488,294v-288,0,-453,-130,-497,-372r281,-23v25,104,88,172,219,172v147,-1,233,-103,230,-260v-4,-149,-75,-241,-224,-244v-94,-1,-148,41,-191,91r-274,0r49,-793r847,0r0,209r-592,0"},"6":{"d":"350,-752v55,-94,164,-155,306,-155v270,0,409,172,409,446v0,305,-166,481,-474,481v-370,0,-516,-282,-516,-692v0,-251,46,-440,135,-568v112,-163,313,-226,541,-172v154,37,236,148,276,306r-265,37v-22,-87,-75,-139,-170,-139v-75,0,-135,38,-178,113v-43,75,-64,190,-64,343xm582,-199v136,0,203,-108,201,-254v-1,-149,-63,-247,-208,-247v-130,0,-205,81,-205,217v0,155,62,284,212,284"},"7":{"d":"1049,-1186v-205,344,-454,654,-463,1186r-293,0v11,-534,279,-840,495,-1178r-700,0r0,-231r961,0r0,223"},"8":{"d":"785,-739v174,32,291,138,291,342v0,293,-201,417,-505,417v-303,0,-506,-123,-506,-415v0,-200,118,-309,287,-342r0,-4v-148,-37,-254,-140,-254,-316v0,-264,194,-373,469,-373v281,0,474,105,474,375v0,175,-105,278,-256,312r0,4xm569,-838v132,0,183,-74,183,-202v0,-126,-56,-193,-185,-193v-127,0,-182,69,-182,193v1,126,54,202,184,202xm573,-178v156,0,213,-89,212,-242v-1,-145,-71,-222,-220,-221v-144,0,-209,84,-211,225v-1,153,63,238,219,238"},"9":{"d":"563,-1430v391,0,500,299,500,703v0,250,-48,435,-137,561v-115,162,-323,222,-552,167v-156,-38,-238,-152,-278,-312r264,-37v24,90,76,147,180,147v147,0,198,-116,228,-249v12,-56,18,-122,19,-199v-54,100,-163,160,-311,160v-274,0,-405,-189,-405,-469v0,-310,180,-472,492,-472xm557,-698v132,0,209,-88,209,-226v0,-157,-58,-286,-210,-286v-142,0,-200,107,-200,254v0,146,58,258,201,258"},":":{"d":"197,-752r0,-282r288,0r0,282r-288,0xm197,0r0,-281r288,0r0,281r-288,0","w":682},";":{"d":"199,-752r0,-282r288,0r0,282r-288,0xm487,-66v1,167,-39,288,-108,383r-184,0v64,-85,127,-177,133,-317r-129,0r0,-281r288,0r0,215","w":682},"\u037e":{"d":"199,-752r0,-282r288,0r0,282r-288,0xm487,-66v1,167,-39,288,-108,383r-184,0v64,-85,127,-177,133,-317r-129,0r0,-281r288,0r0,215","w":682},"<":{"d":"86,-516r0,-322r1027,-391r0,228r-833,325r833,324r0,227","w":1196},"=":{"d":"85,-842r0,-223r1027,0r0,223r-1027,0xm85,-291r0,-221r1027,0r0,221r-1027,0","w":1196},">":{"d":"86,-125r0,-227r832,-324r-832,-325r0,-228r1027,391r0,322","w":1196},"?":{"d":"94,-1001v42,-270,218,-429,531,-429v233,0,397,79,473,236v55,114,35,291,-29,374v-94,122,-259,173,-335,310v-13,24,-20,52,-21,84r-267,0v12,-273,260,-317,376,-484v19,-29,28,-64,28,-104v0,-124,-89,-193,-221,-190v-146,3,-230,85,-250,215xm438,0r0,-270r289,0r0,270r-289,0","w":1251},"@":{"d":"1571,147v-211,131,-571,234,-898,149v-342,-89,-556,-336,-556,-757v0,-422,191,-695,461,-859v135,-82,307,-134,514,-134v390,1,634,169,740,450v95,253,29,595,-96,748v-79,96,-184,179,-339,182v-142,4,-214,-92,-185,-239r-6,0v-65,123,-172,239,-350,239v-233,0,-330,-159,-330,-385v0,-262,114,-460,289,-559v62,-35,132,-53,211,-53v141,0,223,71,264,174r6,0r39,-152r156,0r-117,506v-17,81,-35,163,-37,240v-5,115,123,106,193,54v122,-90,196,-260,196,-474v0,-286,-145,-461,-360,-545v-142,-55,-361,-59,-517,-14v-294,85,-476,296,-547,600v-43,183,-23,407,46,542v100,195,279,320,572,320v244,0,427,-71,589,-155xm772,-778v-96,156,-151,574,117,563v136,-6,207,-100,261,-201v44,-82,76,-185,81,-305v7,-168,-157,-259,-314,-195v-65,26,-109,79,-145,138","w":1997},"A":{"d":"1133,0r-125,-360r-537,0r-125,360r-295,0r514,-1409r348,0r512,1409r-292,0xm942,-582r-182,-540r-21,-70r-63,205r-139,405r405,0","w":1479,"k":{"y":76,"w":37,"v":76,"Y":188,"W":113,"V":152,"T":152," ":76}},"B":{"d":"1036,-741v207,23,350,127,350,339v0,300,-242,402,-544,402r-705,0r0,-1409r645,0v290,4,523,74,523,354v0,178,-105,282,-269,314xm770,-841v149,0,238,-42,238,-174v0,-138,-94,-175,-240,-175r-336,0r0,349r338,0xm817,-219v159,0,273,-47,273,-206v0,-156,-127,-198,-284,-198r-374,0r0,404r385,0","w":1479},"C":{"d":"381,-711v0,298,117,499,414,499v210,0,311,-119,371,-268r257,97v-99,237,-286,405,-628,403v-470,-3,-711,-267,-711,-731v0,-462,232,-717,698,-719v340,-2,538,140,623,392r-260,71v-49,-141,-167,-231,-357,-231v-293,0,-407,193,-407,487","w":1479},"D":{"d":"647,-1409v466,6,746,224,746,694v0,352,-159,572,-415,669v-83,32,-174,46,-271,46r-570,0r0,-1409r510,0xm1096,-715v0,-305,-156,-462,-455,-466r-209,0r0,953v148,-5,304,17,414,-31v160,-70,250,-225,250,-456","w":1479},"E":{"d":"137,0r0,-1409r1108,0r0,228r-813,0r0,354r752,0r0,228r-752,0r0,371r854,0r0,228r-1149,0","w":1366},"F":{"d":"432,-1181r0,436r721,0r0,228r-721,0r0,517r-295,0r0,-1409r1039,0r0,228r-744,0","w":1251,"k":{"A":113,".":227,",":227}},"G":{"d":"381,-711v0,299,127,500,425,500v163,0,300,-46,390,-119r0,-195r-344,0r0,-218r614,0r0,518v-150,146,-373,245,-668,245v-474,0,-714,-264,-714,-731v0,-468,248,-719,721,-719v333,0,541,126,631,367r-272,82v-56,-132,-170,-217,-359,-217v-298,0,-424,189,-424,487","w":1593},"H":{"d":"1046,0r0,-604r-614,0r0,604r-295,0r0,-1409r295,0r0,561r614,0r0,-561r295,0r0,1409r-295,0","w":1479},"I":{"d":"137,0r0,-1409r295,0r0,1409r-295,0","w":569},"J":{"d":"999,-446v-5,302,-170,462,-475,466v-303,4,-449,-141,-493,-402r293,-43v22,121,67,214,202,214v126,0,180,-93,179,-228r0,-739r-281,0r0,-231r575,0r0,963"},"K":{"d":"1112,0r-506,-647r-174,133r0,514r-295,0r0,-1409r295,0r0,639r635,-639r344,0r-602,596r651,813r-348,0","w":1479},"L":{"d":"137,0r0,-1409r295,0r0,1181r756,0r0,228r-1051,0","w":1251,"k":{"y":76,"Y":188,"W":113,"V":152,"T":152," ":37}},"M":{"d":"1307,0r1,-959r9,-202r-105,375r-254,786r-210,0r-284,-887r-77,-274r12,307r0,854r-262,0r0,-1409r395,0r252,788r70,265r74,-260r248,-793r393,0r0,1409r-262,0","w":1706},"N":{"d":"995,0r-614,-1085r15,170v2,29,3,57,3,84r0,831r-262,0r0,-1409r337,0r623,1094r-15,-176v-2,-33,-3,-66,-3,-99r0,-819r262,0r0,1409r-346,0","w":1479},"O":{"d":"1460,-1008v63,173,63,425,-2,597v-97,262,-312,431,-665,431v-359,0,-572,-170,-665,-438v-60,-175,-59,-420,2,-591v94,-263,312,-421,665,-421v353,0,570,160,665,422xm793,-212v294,0,413,-204,413,-499v0,-290,-124,-487,-411,-487v-290,0,-414,195,-414,487v0,226,80,388,234,462v51,25,111,37,178,37","w":1593},"P":{"d":"770,-1409v321,3,526,135,526,446v0,303,-198,467,-514,467r-350,0r0,496r-295,0r0,-1409r633,0xm745,-723v162,-1,254,-77,254,-235v0,-155,-98,-222,-262,-222r-305,0r0,457r313,0","w":1366,"k":{"A":152,".":264,",":264," ":37}},"Q":{"d":"1251,183v41,0,82,-4,119,-10r-2,202v-118,27,-295,45,-408,-1v-152,-61,-225,-199,-276,-364v-392,-42,-600,-297,-600,-721v0,-348,150,-570,406,-669v170,-66,440,-66,610,1v255,101,407,320,407,668v0,396,-193,634,-524,707v39,119,113,189,268,187xm793,-211v295,0,413,-205,413,-500v0,-290,-124,-487,-411,-487v-290,0,-414,195,-414,487v0,226,80,389,234,463v51,25,111,37,178,37","w":1593},"R":{"d":"1367,-989v0,224,-129,348,-311,397r381,592r-332,0r-327,-535r-346,0r0,535r-295,0r0,-1409r704,0v312,3,526,118,526,420xm818,-764v155,-1,252,-65,252,-213v0,-147,-105,-203,-260,-203r-378,0r0,416r386,0","w":1479,"k":{"Y":76,"W":37,"V":37}},"S":{"d":"680,-1221v-149,1,-268,32,-268,168v0,172,192,172,340,211v43,11,88,20,131,30v216,53,408,136,403,406v-6,326,-261,424,-604,426v-341,2,-561,-113,-623,-387r285,-47v36,150,153,215,346,213v172,-1,309,-37,309,-188v0,-135,-124,-166,-239,-196v-289,-74,-640,-89,-635,-451v4,-304,251,-390,561,-394v318,-4,515,91,563,353r-286,39v-32,-126,-120,-184,-283,-183","w":1366},"T":{"d":"773,-1181r0,1181r-295,0r0,-1181r-455,0r0,-228r1206,0r0,228r-456,0","w":1251,"k":{"y":152,"w":152,"u":152,"s":152,"r":113,"o":152,"i":37,"e":152,"c":152,"a":152,"O":37,"A":152,";":227,":":227,".":227,"-":113,",":227}},"U":{"d":"731,-211v218,0,328,-126,328,-350r0,-848r295,0r0,866v-6,387,-245,563,-631,563v-373,0,-600,-172,-600,-548r0,-881r295,0r0,858v0,218,100,340,313,340","w":1479},"V":{"d":"834,0r-299,0r-521,-1409r308,0r290,905r74,266r72,-266r289,-905r305,0","w":1366,"k":{"y":76,"u":76,"r":113,"o":152,"i":37,"e":113,"a":113,"A":152,";":113,":":113,".":188,"-":113,",":188}},"W":{"d":"1567,0r-350,0r-211,-903r-39,-213r-62,301r-190,815r-350,0r-363,-1409r299,0r228,1021r22,109r80,-380r174,-750r330,0r190,803r59,327r78,-346r170,-784r299,0","w":1933,"k":{"y":37,"u":37,"r":37,"o":37,"i":18,"e":37,"a":76,"A":113,";":37,":":37,".":113,"-":41,",":113}},"X":{"d":"1038,0r-354,-561r-354,561r-312,0r488,-741r-447,-668r312,0r313,498r313,-498r310,0r-428,668r469,741r-310,0","w":1366},"Y":{"d":"831,-578r0,578r-294,0r0,-578r-502,-831r309,0r338,596r342,-596r309,0","w":1366,"k":{"v":113,"u":113,"q":152,"p":113,"o":152,"i":76,"e":113,"a":113,"A":188,";":152,":":152,".":227,"-":113,",":227," ":37}},"Z":{"d":"1192,0r-1131,0r0,-209r762,-969r-686,0r0,-231r1014,0r0,205r-762,973r803,0r0,231","w":1251},"[":{"d":"115,425r0,-1909r542,0r0,190r-276,0r0,1528r276,0r0,191r-542,0","w":682},"\\":{"d":"307,41r-286,-1526r238,0r291,1526r-243,0","w":569},"]":{"d":"25,425r0,-191r278,0r0,-1528r-278,0r0,-190r542,0r0,1909r-542,0","w":682},"^":{"d":"922,-514r-326,-752r-324,752r-227,0r391,-895r322,0r393,895r-229,0","w":1196},"_":{"d":"-20,250r0,-78r1177,0r0,78r-1177,0"},"`":{"d":"406,-1183r-340,-276r0,-43r258,0r251,288r0,31r-169,0","w":682},"a":{"d":"749,-193v-70,124,-174,213,-356,213v-213,0,-333,-113,-333,-326v0,-253,179,-340,427,-346r233,-4v5,-148,-15,-264,-158,-264v-108,0,-150,54,-160,153r-293,-14v39,-219,202,-321,465,-321v266,0,427,124,427,388r0,394v1,84,5,160,89,160v21,0,42,-2,62,-6r0,152v-57,13,-108,26,-180,26v-145,0,-203,-73,-217,-205r-6,0xm353,-328v0,95,44,152,130,152v169,0,245,-137,237,-325r-144,2v-130,3,-223,33,-223,171"},"b":{"d":"424,-894v60,-136,169,-208,346,-208v303,0,397,249,397,557v0,246,-68,437,-229,523v-52,28,-115,42,-186,42v-170,-1,-269,-79,-330,-194v-1,56,-5,127,-14,174r-273,0v2,-23,3,-57,5,-100v2,-43,3,-92,3,-147r0,-1237r281,0r0,414r-4,176r4,0xm420,-536v0,201,48,364,231,364v71,0,126,-29,165,-88v39,-59,58,-154,58,-285v-2,-210,-42,-362,-221,-362v-185,0,-233,166,-233,371","w":1251},"c":{"d":"596,-172v120,0,188,-82,201,-201r282,13v-41,237,-208,380,-485,380v-346,0,-514,-210,-514,-555v0,-353,169,-567,518,-567v270,0,425,136,473,361r-283,14v-16,-106,-75,-185,-196,-182v-176,4,-217,161,-217,363v0,249,74,374,221,374"},"d":{"d":"1108,-236r8,236r-272,0v-9,-48,-14,-119,-15,-176r-4,0v-60,131,-168,196,-346,196v-301,0,-395,-253,-395,-560v0,-246,69,-434,230,-520v52,-28,114,-42,186,-42v170,0,269,77,329,191r-2,-573r281,0r0,1248xm598,-172v183,0,233,-171,233,-375v0,-202,-47,-364,-231,-364v-189,0,-223,171,-223,371v0,245,74,368,221,368","w":1251},"e":{"d":"1053,-274v-70,175,-212,297,-467,294v-347,-4,-506,-212,-506,-566v0,-355,170,-556,510,-556v356,0,477,255,479,615r-694,0v2,177,51,319,225,319v104,0,163,-45,188,-129xm797,-663v-2,-182,-115,-308,-291,-247v-88,30,-125,125,-129,247r420,0"},"f":{"d":"604,-1296v-92,-3,-133,38,-131,129r0,85r213,0r0,190r-213,0r0,892r-280,0r0,-892r-158,0r0,-190r158,0r0,-113v0,-199,109,-290,315,-289v61,0,127,8,178,16r0,181v-22,-5,-56,-9,-82,-9","w":682},"g":{"d":"1108,-33v-2,322,-190,467,-512,467v-252,0,-420,-88,-467,-291r281,-33v20,86,88,139,194,139v188,0,233,-143,225,-343v-1,-34,6,-77,0,-107v-59,131,-171,199,-348,199v-300,0,-397,-242,-397,-548v0,-317,106,-553,418,-553v162,0,272,71,327,195r5,0v1,-56,5,-127,14,-174r266,0r-6,250r0,799xm600,-197v181,0,231,-160,231,-359v0,-196,-51,-354,-229,-354v-185,0,-225,164,-225,360v0,201,49,353,223,353","w":1251},"h":{"d":"424,-1079r-8,213r4,0v67,-145,161,-236,348,-236v254,0,356,165,356,416r0,686r-280,0r0,-606v-1,-157,-39,-285,-193,-285v-163,0,-227,142,-227,312r0,579r-281,0r0,-1484r281,0r0,405","w":1251},"i":{"d":"143,-1277r0,-207r281,0r0,207r-281,0xm143,0r0,-1082r281,0r0,1082r-281,0","w":569},"j":{"d":"144,-1277r0,-207r281,0r0,207r-281,0xm425,128v-2,190,-94,296,-287,297v-65,0,-119,-3,-170,-9r0,-198v16,2,34,4,51,4v106,5,125,-58,125,-162r0,-1142r281,0r0,1210","w":569},"k":{"d":"834,0r-289,-490r-121,84r0,406r-281,0r0,-1484r281,0r0,850r386,-448r302,0r-380,422r409,660r-307,0"},"l":{"d":"143,0r0,-1484r281,0r0,1484r-281,0","w":569},"m":{"d":"1251,-892v-145,0,-192,146,-192,299r0,593r-279,0r0,-607v-3,-147,-24,-285,-164,-285v-148,0,-192,153,-192,312r0,580r-281,0r-3,-982r-5,-100r268,0v7,61,12,148,13,215r4,0v60,-142,141,-236,315,-236v173,0,268,90,301,236r6,0v60,-137,140,-236,328,-236v240,0,324,176,324,416r0,687r-279,0r0,-607v-3,-147,-24,-285,-164,-285","w":1821},"n":{"d":"768,-1103v254,0,356,165,356,416r0,687r-280,0r0,-607v-1,-157,-39,-285,-193,-285v-163,0,-227,142,-227,312r0,580r-281,0r-3,-982r-5,-100r268,0v7,61,12,148,13,215r4,0v67,-145,161,-236,348,-236","w":1251},"o":{"d":"627,-1102v365,0,544,201,544,560v0,356,-191,562,-550,562v-354,0,-541,-209,-541,-562v0,-354,189,-560,547,-560xm618,-172v203,0,258,-158,259,-370v1,-223,-56,-367,-246,-367v-192,0,-258,145,-256,367v2,205,52,370,243,370","w":1251},"p":{"d":"424,-906v60,-131,171,-199,346,-199v302,0,397,250,397,559v0,246,-68,438,-229,524v-52,28,-115,42,-186,42v-167,0,-271,-74,-328,-192r-6,0v12,187,4,400,6,597r-281,0r0,-1258v0,-55,-1,-105,-3,-148v-2,-43,-3,-77,-5,-101r273,0v10,46,11,120,12,176r4,0xm649,-172v189,0,225,-174,225,-374v0,-123,-22,-212,-56,-274v-63,-114,-254,-115,-324,-12v-47,69,-75,165,-74,294v3,201,48,366,229,366","w":1251},"q":{"d":"832,-180v-59,131,-176,200,-353,200v-301,0,-395,-253,-395,-560v0,-246,71,-435,232,-521v52,-28,114,-42,186,-42v162,0,272,71,327,195v1,-57,6,-127,15,-174r270,0r-6,249r0,1258r-279,0r5,-605r-2,0xm600,-172v183,0,231,-170,231,-374v0,-201,-46,-364,-229,-364v-188,0,-225,170,-225,370v0,245,74,368,223,368","w":1251},"r":{"d":"646,-868v-164,5,-222,146,-222,337r0,531r-281,0r-3,-976r-5,-106r268,0v7,64,12,160,13,231r4,0v48,-129,86,-252,259,-252v29,0,68,6,87,15r0,235v-39,-8,-71,-16,-120,-15","w":797,"k":{".":113,",":113}},"s":{"d":"573,-916v-113,2,-200,15,-200,111v0,90,87,102,167,121v34,8,72,15,113,25v202,45,402,97,402,343v0,312,-356,371,-670,321v-167,-27,-273,-117,-313,-275r247,-37v25,112,113,145,252,141v114,-2,226,-12,226,-124v0,-101,-101,-112,-191,-134v-38,-9,-80,-16,-123,-26v-186,-43,-368,-97,-368,-325v0,-298,327,-367,622,-311v154,29,261,119,293,275r-249,26v-17,-98,-92,-133,-208,-131"},"t":{"d":"657,-16v-70,23,-145,34,-237,34v-170,-1,-258,-95,-258,-272r0,-638r-137,0r0,-190r151,0r88,-254r176,0r0,254r205,0r0,190r-205,0r0,562v0,98,32,152,123,154v38,0,61,-7,94,-14r0,174","w":682},"u":{"d":"483,20v-252,0,-356,-164,-356,-415r0,-687r281,0r0,607v2,157,39,285,192,285v163,0,227,-142,227,-312r0,-580r281,0r2,982r6,100r-268,0r-12,-215r-5,0v-66,145,-162,235,-348,235","w":1251},"v":{"d":"731,0r-336,0r-387,-1082r297,0r227,735r33,120r74,-247r197,-608r294,0","k":{".":152,",":152}},"w":{"d":"1313,0r-297,0r-188,-730r-31,-152r-52,224r-174,658r-297,0r-280,-1082r264,0r178,827v55,-290,139,-552,209,-827r301,0r180,695r27,132r184,-827r260,0","w":1593,"k":{".":76,",":76}},"x":{"d":"819,0r-252,-392r-254,392r-299,0r396,-559r-377,-523r303,0r231,354r230,-354r305,0r-377,520r399,562r-305,0"},"y":{"d":"106,212v80,12,181,11,228,-31v50,-45,83,-117,110,-192r-428,-1071r297,0r223,674r48,167r90,-330r160,-511r294,0r-428,1139v-84,190,-156,368,-417,368v-60,0,-125,-4,-177,-13r0,-200","k":{".":152,",":152}},"z":{"d":"68,0r0,-199r540,-680r-499,0r0,-203r809,0r0,201r-537,676r586,0r0,205r-899,0","w":1024},"{":{"d":"524,25v-3,158,67,222,230,209r0,191r-197,0v-189,-4,-295,-109,-295,-299r0,-328v1,-156,-78,-227,-229,-229r0,-195v150,-4,229,-74,229,-231r0,-328v-2,-190,109,-299,295,-299r197,0r0,190r-58,0v-128,1,-171,76,-172,209r0,301v-4,144,-89,222,-207,252r0,4v118,31,207,107,207,252r0,301","w":797},"|":{"d":"156,455r0,-1939r262,0r0,1939r-262,0","w":573},"}":{"d":"535,126v-3,190,-106,299,-295,299r-197,0r0,-191r57,0v131,-1,172,-74,172,-209r0,-301v5,-144,89,-221,207,-252r0,-4v-118,-30,-207,-108,-207,-252r0,-301v-1,-134,-41,-208,-172,-209r-57,0r0,-190r197,0v186,0,295,109,295,299r0,328v-1,157,81,227,231,231r0,195v-152,2,-232,73,-231,229r0,328","w":797},"~":{"d":"1119,-596v-71,50,-147,82,-267,80v-195,-1,-326,-115,-516,-115v-115,0,-185,41,-255,88r0,-213v92,-78,283,-103,434,-60v116,33,217,93,356,93v102,0,187,-43,248,-92r0,219","w":1196}}});
