/*!
 * The following copyright notice may not be removed under any circumstances.
 * 
 * Copyright:
 * Digitized data © 2007 Ascender Corporation. All rights reserved.
 * 
 * Trademark:
 * Liberation is a trademark of Red Hat, Inc. registered in U.S. Patent and
 * Trademark Office and certain other jurisdictions.
 * 
 * Manufacturer:
 * Ascender Corporation
 * 
 * Designer:
 * Steve Matteson
 * 
 * Vendor URL:
 * http://www.ascendercorp.com/
 * 
 * License information:
 * http://www.ascendercorp.com/liberation.html
 */
Cufon.registerFont({"w":1139,"face":{"font-family":"Liberation Sans","font-weight":400,"font-stretch":"normal","units-per-em":"2048","panose-1":"2 11 6 4 2 2 2 2 2 4","ascent":"1638","descent":"-410","x-height":"20","bbox":"-50 -1516 1926 434","underline-thickness":"150","underline-position":"-142","unicode-range":"U+0020-U+007E"},"glyphs":{" ":{"w":569,"k":{"Y":37,"T":37,"A":113}},"\u00a0":{"w":569},"!":{"d":"359,-397r-148,0r-24,-1012r196,0xm185,0r0,-201r194,0r0,201r-194,0","w":569},"\"":{"d":"618,-966r-142,0r-20,-443r184,0xm249,-966r-141,0r-21,-443r184,0","w":727},"#":{"d":"896,-885r-78,369r260,0r0,108r-283,0r-88,408r-110,0r86,-408r-363,0r-84,408r-110,0r84,-408r-201,0r0,-108r225,0r78,-369r-252,0r0,-108r274,0r89,-408r110,0r-88,408r363,0r88,-408r110,0r-88,408r211,0r0,108r-233,0xm425,-885r-80,369r362,0r78,-369r-360,0"},"$":{"d":"642,-797v233,55,470,112,464,401v-6,262,-201,359,-464,376r0,162r-124,0r0,-162v-278,-10,-447,-130,-496,-359r170,-37v32,159,142,237,326,248r0,-496r-20,-5v-210,-51,-412,-116,-412,-377v0,-245,192,-325,432,-339r0,-131r124,0r0,131v248,9,382,116,433,320r-174,33v-29,-131,-108,-196,-259,-210r0,445xm642,-167v159,-13,290,-62,292,-227v3,-177,-152,-202,-292,-241r0,468xm518,-1244v-146,10,-260,52,-260,196v0,159,132,190,260,225r0,-421"},"%":{"d":"1432,-885v248,0,316,189,316,451v0,258,-77,446,-320,446v-242,0,-315,-189,-315,-446v0,-265,68,-451,319,-451xm527,0r-155,0r922,-1409r157,0xm73,-975v0,-264,71,-446,321,-446v244,0,313,186,313,446v0,258,-74,451,-317,451v-244,0,-317,-192,-317,-451xm1432,-774v-163,0,-172,164,-172,340v0,146,14,266,98,319v39,24,101,23,142,0v115,-63,112,-319,89,-483v-14,-101,-49,-176,-157,-176xm220,-975v0,173,11,338,172,338v155,0,168,-168,168,-338v0,-147,-10,-269,-95,-322v-20,-12,-44,-16,-71,-16v-164,0,-174,162,-174,338","w":1821},"&":{"d":"1334,-10v-36,15,-91,22,-141,22v-139,-1,-225,-52,-298,-127v-90,75,-206,135,-372,135v-277,0,-451,-124,-451,-391v0,-245,168,-347,343,-429v-42,-84,-81,-182,-81,-302v0,-212,132,-315,351,-315v196,0,336,89,336,284v0,178,-128,254,-252,321v-49,26,-102,49,-157,71v84,155,181,283,293,412v82,-121,131,-247,171,-410r145,43v-46,186,-119,330,-212,469v71,83,196,121,325,82r0,135xm683,-1296v-125,-2,-196,71,-196,194v0,89,33,179,65,244v113,-47,231,-92,292,-186v17,-26,25,-56,25,-89v0,-108,-75,-161,-186,-163xm240,-373v-3,200,166,294,372,253v75,-15,137,-54,183,-97v-117,-138,-231,-293,-319,-457v-130,57,-234,137,-236,301","w":1366},"'":{"d":"266,-966r-141,0r-21,-443r184,0","w":391},"(":{"d":"496,424v-216,-236,-369,-514,-369,-956v1,-438,154,-717,369,-952r174,0v-211,237,-362,519,-362,954v0,435,151,718,362,954r-174,0","w":682},")":{"d":"186,-1484v216,236,369,515,369,956v-1,439,-154,717,-369,952r-174,0v211,-237,362,-519,362,-954v0,-435,-152,-717,-362,-954r174,0","w":682},"*":{"d":"456,-1114r264,-103r45,132r-282,73r185,250r-119,72r-150,-258r-156,256r-119,-72r189,-248r-280,-73r45,-134r267,107r-12,-297r136,0","w":797},"+":{"d":"671,-608r0,428r-147,0r0,-428r-424,0r0,-146r424,0r0,-428r147,0r0,428r424,0r0,146r-424,0","w":1196},",":{"d":"385,-219v4,192,2,374,-78,481r-123,0v50,-74,92,-155,94,-262r-88,0r0,-219r195,0","w":569},"-":{"d":"91,-464r0,-160r500,0r0,160r-500,0","w":682},"\u00ad":{"d":"91,-464r0,-160r500,0r0,160r-500,0","w":682},".":{"d":"187,0r0,-219r195,0r0,219r-195,0","w":569},"\/":{"d":"0,20r411,-1504r158,0r-407,1504r-162,0","w":569},"0":{"d":"1021,-1058v48,173,49,519,-1,694v-65,226,-186,384,-453,384v-383,0,-484,-317,-487,-725v-2,-255,45,-440,141,-575v100,-140,344,-190,541,-116v137,52,213,174,259,338xm697,-156v202,-102,202,-539,159,-828v-26,-175,-93,-300,-283,-300v-287,0,-307,274,-311,579v-3,190,18,341,80,451v45,81,114,127,227,127v47,0,90,-9,128,-29"},"1":{"d":"156,0r0,-153r359,0r0,-1084r-318,227r0,-170r333,-229r166,0r0,1256r343,0r0,153r-883,0","k":{"1":152}},"2":{"d":"572,-1430v271,0,442,119,442,386v0,174,-98,275,-192,369v-143,143,-326,257,-454,413v-29,35,-51,71,-67,109r735,0r0,153r-933,0r0,-127v119,-285,379,-433,583,-627v76,-72,143,-151,143,-284v0,-162,-96,-244,-257,-244v-163,0,-257,89,-277,238r-184,-17v35,-234,193,-369,461,-369"},"3":{"d":"715,-719v196,24,334,123,334,330v0,285,-188,409,-478,409v-293,0,-457,-130,-493,-382r186,-17v24,160,121,250,307,250v178,0,294,-88,291,-266v-4,-222,-214,-251,-446,-244r0,-156v222,9,409,-31,409,-243v0,-157,-98,-244,-264,-244v-159,0,-264,88,-278,233r-181,-14v32,-239,197,-367,461,-367v270,0,447,115,447,373v0,203,-121,297,-295,334r0,4"},"4":{"d":"881,-319r0,319r-170,0r0,-319r-664,0r0,-140r645,-950r189,0r0,948r198,0r0,142r-198,0xm711,-1206r-67,119r-415,606r-16,20r498,0r0,-745"},"5":{"d":"307,-809v96,-85,326,-120,480,-58v158,63,266,195,266,408v0,312,-184,479,-500,479v-268,0,-424,-117,-471,-335r182,-21v36,129,124,212,293,209v203,-3,309,-122,309,-328v0,-188,-114,-294,-305,-297v-120,-2,-198,45,-262,101r-176,0r47,-758r801,0r0,153r-637,0"},"6":{"d":"283,-725v59,-113,178,-186,342,-186v276,0,424,172,424,450v0,299,-156,481,-455,481v-377,0,-490,-304,-490,-692v0,-336,80,-594,292,-710v130,-71,351,-59,462,16v73,50,124,123,152,223r-172,31v-31,-108,-108,-172,-232,-172v-189,0,-262,144,-300,314v-15,70,-23,152,-23,245xm588,-125v192,0,278,-133,278,-328v0,-196,-90,-319,-284,-319v-172,0,-281,96,-281,276v0,163,62,283,168,342v35,19,75,29,119,29"},"7":{"d":"1036,-1263v-229,366,-474,692,-483,1263r-188,0v7,-400,152,-690,306,-958v59,-102,124,-200,191,-298r-757,0r0,-153r931,0r0,146"},"8":{"d":"765,-739v174,32,285,143,285,346v0,284,-186,413,-480,413v-293,0,-481,-127,-481,-411v0,-199,115,-311,281,-346r0,-4v-149,-39,-248,-147,-248,-328v0,-246,186,-361,444,-361v213,0,359,77,422,223v19,44,27,91,27,140v0,179,-97,290,-250,324r0,4xm568,-809v175,0,261,-81,260,-248v0,-165,-93,-240,-262,-239v-167,0,-260,76,-260,239v0,161,91,248,262,248xm572,-115v199,0,293,-98,291,-295v-2,-180,-109,-264,-297,-264v-183,0,-291,92,-291,268v0,194,99,291,297,291"},"9":{"d":"96,-956v0,-302,166,-474,469,-474v157,0,275,58,356,174v81,116,121,290,121,523v-1,336,-83,593,-298,706v-135,72,-365,58,-474,-21v-71,-51,-117,-126,-145,-226r172,-27v34,112,104,176,238,176v189,0,263,-143,303,-311v16,-69,25,-151,26,-244v-58,121,-178,199,-350,199v-211,0,-332,-118,-388,-281v-20,-58,-30,-123,-30,-194xm279,-956v0,194,85,333,278,333v172,0,289,-105,289,-284v0,-163,-57,-288,-164,-347v-36,-20,-76,-30,-123,-30v-191,0,-280,133,-280,328"},":":{"d":"187,-875r0,-207r195,0r0,207r-195,0xm187,0r0,-207r195,0r0,207r-195,0","w":569},";":{"d":"385,-207v4,188,1,364,-78,469r-123,0v50,-74,92,-155,94,-262r-88,0r0,-207r195,0xm190,-875r0,-207r195,0r0,207r-195,0","w":569},"\u037e":{"d":"385,-207v4,188,1,364,-78,469r-123,0v50,-74,92,-155,94,-262r-88,0r0,-207r195,0xm190,-875r0,-207r195,0r0,207r-195,0","w":569},"<":{"d":"101,-571r0,-205r995,-418r0,154r-858,366r858,367r0,153","w":1196},"=":{"d":"100,-856r0,-148r995,0r0,148r-995,0xm100,-344r0,-148r995,0r0,148r-995,0","w":1196},">":{"d":"101,-154r0,-153r858,-367r-858,-366r0,-154r995,418r0,205","w":1196},"?":{"d":"584,-1430v284,0,479,121,479,398v0,283,-233,337,-371,483v-40,42,-70,94,-71,172r-175,0v6,-271,238,-318,368,-465v39,-44,69,-100,67,-182v-4,-171,-120,-243,-295,-246v-184,-2,-300,99,-318,262r-184,-12v38,-259,200,-410,500,-410xm438,0r0,-201r195,0r0,201r-195,0"},"@":{"d":"1612,105v-170,99,-385,178,-658,178v-389,0,-631,-179,-740,-463v-100,-260,-42,-621,69,-816v160,-279,417,-488,843,-488v387,0,632,168,730,450v117,335,11,755,-222,882v-56,30,-114,48,-179,48v-127,-1,-205,-52,-207,-176r3,-70r-6,0v-72,129,-177,246,-374,246v-229,0,-330,-155,-330,-385v0,-267,118,-462,295,-561v62,-34,131,-51,207,-51v160,0,251,73,301,182r6,0r39,-160r156,0r-116,506v-20,92,-33,161,-37,253v-5,118,128,107,196,54v160,-125,229,-479,136,-727v-85,-227,-284,-365,-596,-365v-378,0,-601,183,-731,437v-90,176,-132,473,-52,690v88,237,287,386,609,386v250,0,445,-75,603,-162xm728,-664v-50,182,-32,437,172,429v166,-6,257,-115,320,-230v44,-81,76,-170,76,-282v0,-146,-93,-227,-242,-227v-194,0,-282,151,-326,310","w":2079},"A":{"d":"1167,0r-161,-412r-642,0r-162,412r-198,0r575,-1409r217,0r566,1409r-195,0xm949,-561r-211,-546r-53,-158r-83,241r-180,463r527,0","w":1366,"k":{"y":37,"w":37,"v":37,"Y":152,"W":76,"V":152,"T":152," ":113}},"B":{"d":"908,-743v204,26,350,127,350,346v0,291,-226,397,-518,397r-572,0r0,-1409r512,0v278,3,496,71,496,342v0,188,-110,286,-268,324xm680,-810v183,0,301,-57,304,-234v4,-275,-359,-201,-625,-212r0,446r321,0xm730,-153v198,0,335,-61,335,-259v-1,-315,-398,-240,-706,-249r0,508r371,0","w":1366},"C":{"d":"1207,-1021v-64,-153,-196,-253,-415,-253v-338,0,-494,223,-494,563v0,264,107,448,292,532v62,28,132,42,210,42v240,0,360,-133,445,-293r156,78v-108,215,-290,372,-610,372v-351,0,-555,-172,-644,-438v-58,-175,-57,-420,3,-591v91,-259,296,-421,640,-421v308,0,507,125,598,349","w":1479},"D":{"d":"1326,-1029v72,166,71,450,2,621v-99,247,-303,408,-633,408r-527,0r0,-1409v266,7,554,-23,766,41v185,56,318,169,392,339xm1189,-719v0,-363,-202,-533,-559,-537r-271,0r0,1103v185,-6,380,20,519,-36v196,-79,311,-255,311,-530","w":1479},"E":{"d":"168,0r0,-1409r1069,0r0,156r-878,0r0,452r818,0r0,154r-818,0r0,491r919,0r0,156r-1110,0","w":1366},"F":{"d":"359,-1253r0,524r786,0r0,158r-786,0r0,571r-191,0r0,-1409r1001,0r0,156r-810,0","w":1251,"k":{"A":113,".":227,",":227}},"G":{"d":"1440,-219v-142,140,-345,239,-627,239v-360,0,-572,-169,-665,-438v-60,-174,-59,-419,0,-591v91,-264,304,-419,656,-421v320,-3,509,113,605,332r-182,54v-72,-147,-206,-232,-428,-230v-347,3,-502,217,-502,563v0,267,105,450,293,533v64,28,138,43,223,43v199,-1,348,-63,451,-156r0,-254r-421,0r0,-160r597,0r0,486","w":1593},"H":{"d":"1121,0r0,-653r-762,0r0,653r-191,0r0,-1409r191,0r0,596r762,0r0,-596r191,0r0,1409r-191,0","w":1479},"I":{"d":"189,0r0,-1409r191,0r0,1409r-191,0","w":569},"J":{"d":"458,-135v152,0,224,-114,224,-281r0,-837r-271,0r0,-156r461,0r0,989v-5,274,-142,440,-415,440v-252,0,-385,-136,-425,-370r187,-31v23,139,89,246,239,246","w":1024},"K":{"d":"1106,0r-563,-680r-184,140r0,540r-191,0r0,-1409r191,0r0,706r679,-706r225,0r-600,612r680,797r-237,0","w":1366},"L":{"d":"168,0r0,-1409r191,0r0,1253r712,0r0,156r-903,0","k":{"y":76,"Y":152,"W":152,"V":152,"T":152," ":76}},"M":{"d":"331,-1240r7,300r0,940r-170,0r0,-1409r251,0r375,977r52,178v5,20,9,35,11,46v16,-72,44,-159,68,-224r368,-977r245,0r0,1409r-172,0r1,-1044r8,-196r-57,192v-10,32,-21,62,-31,88r-364,960r-134,0r-381,-995","w":1706},"N":{"d":"328,-1200r10,264r0,936r-170,0r0,-1409r222,0r762,1208r-12,-284r0,-924r172,0r0,1409r-230,0","w":1479},"O":{"d":"1449,-1007v62,174,62,423,-1,596v-94,262,-304,431,-653,431v-355,0,-563,-171,-654,-438v-59,-175,-59,-420,2,-591v92,-261,305,-421,654,-421v348,0,560,162,652,423xm795,-135v351,-4,505,-226,505,-576v0,-343,-161,-563,-503,-563v-345,0,-506,217,-506,563v0,265,102,449,287,533v63,28,135,43,217,43","w":1593},"P":{"d":"761,-1409v303,3,497,131,497,424v0,288,-189,436,-485,436r-414,0r0,549r-191,0r0,-1409r593,0xm746,-700v208,2,320,-88,320,-283v0,-191,-124,-273,-328,-273r-379,0r0,556r387,0","w":1366,"k":{"A":152,".":264,",":264," ":37}},"Q":{"d":"1319,365v-94,24,-239,34,-328,-3v-142,-59,-209,-190,-258,-346v-322,-18,-514,-187,-596,-446v-55,-174,-53,-412,6,-579v92,-261,305,-421,654,-421v348,0,560,162,652,423v59,163,61,400,7,569v-77,243,-249,404,-528,444v45,133,107,235,276,238v36,0,85,-7,115,-13r0,134xm795,-135v351,-4,505,-226,505,-576v0,-343,-161,-563,-503,-563v-345,0,-506,217,-506,563v0,265,102,449,287,533v63,28,135,43,217,43","w":1593},"R":{"d":"1328,-1006v0,232,-137,360,-344,399r400,607r-220,0r-366,-585r-439,0r0,585r-191,0r0,-1409r663,0v295,3,497,118,497,403xm820,-736v192,-2,316,-83,316,-268v0,-186,-135,-252,-324,-252r-453,0r0,520r461,0","w":1479,"k":{"Y":37,"W":37,"V":37,"T":37}},"S":{"d":"692,-1286v-193,2,-347,44,-347,223v0,145,121,187,242,216r281,67v210,55,404,128,404,391v0,308,-256,406,-582,409v-328,3,-535,-109,-597,-358r185,-37v45,176,192,249,419,246v206,-2,386,-50,386,-250v0,-223,-249,-223,-431,-271v-238,-63,-493,-113,-493,-403v0,-289,241,-373,535,-377v303,-4,484,90,545,324r-188,33v-39,-152,-163,-215,-359,-213","w":1366},"T":{"d":"720,-1253r0,1253r-190,0r0,-1253r-484,0r0,-156r1158,0r0,156r-484,0","w":1251,"k":{"y":113,"w":113,"u":76,"s":227,"r":76,"o":227,"i":76,"e":227,"c":227,"a":227,"O":37,"A":152,";":227,":":227,".":227,"-":113,",":227," ":37}},"U":{"d":"730,-135v258,0,401,-139,401,-406r0,-868r190,0r0,879v-2,284,-144,448,-361,517v-221,71,-505,20,-632,-95v-99,-89,-171,-217,-170,-404r0,-897r191,0r0,881v0,258,129,393,381,393","w":1479},"V":{"d":"782,0r-198,0r-575,-1409r201,0r390,992r84,249r84,-249r388,-992r201,0","w":1366,"k":{"y":76,"u":76,"r":76,"o":113,"i":37,"e":113,"a":152,"A":152,";":76,":":76,".":188,"-":113,",":188}},"W":{"d":"1511,0r-228,0r-267,-985r-47,-211r-48,212r-269,984r-228,0r-415,-1409r199,0r253,895r59,236r24,110r88,-364r245,-877r183,0r274,985r59,256r85,-346r249,-895r199,0","w":1933,"k":{"y":18,"u":37,"r":37,"o":37,"e":37,"a":76,"A":76,";":37,":":37,".":113,"-":37,",":113}},"X":{"d":"1112,0r-423,-616r-432,616r-211,0r536,-732r-495,-677r211,0r392,553r381,-553r211,0r-482,670r523,739r-211,0","w":1366},"Y":{"d":"777,-584r0,584r-190,0r0,-584r-542,-825r210,0r429,671r427,-671r210,0","w":1366,"k":{"v":113,"u":113,"q":188,"p":152,"o":188,"i":76,"e":188,"a":152,"A":152,";":133,":":113,".":264,"-":188,",":264," ":37}},"Z":{"d":"1187,0r-1122,0r0,-143r858,-1110r-785,0r0,-156r1002,0r0,139r-858,1114r905,0r0,156","w":1251},"[":{"d":"146,425r0,-1909r407,0r0,129r-233,0r0,1651r233,0r0,129r-407,0","w":569},"\\":{"d":"407,20r-407,-1504r158,0r411,1504r-162,0","w":569},"]":{"d":"16,425r0,-129r233,0r0,-1651r-233,0r0,-129r407,0r0,1909r-407,0","w":569},"^":{"d":"787,-673r-309,-633r-306,633r-162,0r368,-736r203,0r370,736r-164,0","w":961},"_":{"d":"-31,407r0,-130r1193,0r0,130r-1193,0"},"`":{"d":"436,-1201r-330,-278r0,-29r207,0r217,287r0,20r-94,0","w":682},"a":{"d":"797,-207v-73,133,-177,227,-383,227v-211,0,-327,-118,-327,-322v0,-270,204,-347,467,-354r243,-4v12,-195,-46,-305,-232,-305v-142,0,-230,44,-242,172r-188,-17v34,-206,187,-292,434,-292v259,0,410,117,410,364r0,466v2,96,12,159,101,161v21,0,41,-3,59,-7r0,112v-44,10,-86,16,-139,16v-141,2,-190,-83,-197,-217r-6,0xm272,-299v0,117,66,185,183,184v171,-2,272,-96,321,-219v25,-64,21,-121,21,-200r-197,4v-184,2,-328,43,-328,231"},"b":{"d":"655,-1102v305,0,398,220,398,556v0,377,-133,566,-398,566v-180,0,-271,-68,-339,-188r-10,168r-174,0r6,-223r0,-1261r180,0r0,423r-4,153r4,0v62,-130,159,-194,337,-194xm607,-113v224,0,257,-194,257,-427v0,-232,-31,-423,-255,-423v-239,0,-291,186,-291,434v0,242,55,416,289,416"},"c":{"d":"546,-961v-231,0,-271,180,-271,415v0,229,48,424,273,424v139,0,224,-79,240,-212r182,12v-35,209,-173,342,-417,342v-336,0,-466,-227,-466,-562v0,-341,134,-560,464,-560v238,0,370,125,413,323r-185,14v-19,-119,-93,-196,-233,-196","w":1024},"d":{"d":"835,0v-7,-50,-9,-115,-10,-174r-4,0v-62,130,-159,194,-337,194v-305,0,-398,-220,-398,-556v0,-377,133,-566,398,-566v178,0,272,68,339,188r-2,-570r180,0r0,1261r6,223r-172,0xm532,-969v-224,0,-257,194,-257,427v0,232,31,423,255,423v239,0,291,-187,291,-435v0,-241,-56,-415,-289,-415"},"e":{"d":"571,-1102v358,0,481,239,477,599r-772,0v3,224,79,385,302,388v147,3,246,-65,283,-166r158,45v-63,164,-206,257,-441,256v-337,-2,-493,-213,-491,-568v2,-346,152,-554,484,-554xm862,-641v-19,-206,-91,-328,-294,-328v-191,0,-281,130,-290,328r584,0"},"f":{"d":"492,-1341v-140,0,-134,122,-131,259r211,0r0,131r-211,0r0,951r-180,0r0,-951r-152,0r0,-131r152,0r0,-122v-2,-182,77,-281,264,-278v42,0,93,4,127,12r0,137v-21,-4,-56,-8,-80,-8","w":569,"k":{"f":37}},"g":{"d":"1001,-31v-1,304,-147,456,-453,456v-228,0,-372,-87,-417,-267r181,-26v25,102,111,157,241,156v192,-1,270,-117,269,-315r0,-174r-2,0v-61,122,-165,209,-348,209v-309,0,-386,-233,-386,-547v0,-322,88,-558,406,-560v167,-1,272,86,332,202r8,-162v1,-13,3,-21,4,-23r171,0r-6,224r0,827xm272,-541v0,235,33,416,261,416v211,0,289,-185,289,-416v0,-195,-56,-337,-180,-400v-34,-17,-70,-24,-106,-24v-226,3,-264,190,-264,424"},"h":{"d":"602,-963v-189,7,-280,132,-280,325r0,638r-180,0r0,-1484r180,0r-1,452r-7,135r3,0v67,-122,160,-205,346,-205v250,0,343,135,343,381r0,721r-181,0r0,-686v4,-177,-44,-283,-223,-277"},"i":{"d":"137,-1312r0,-172r180,0r0,172r-180,0xm137,0r0,-1082r180,0r0,1082r-180,0","w":455},"j":{"d":"137,-1312r0,-172r180,0r0,172r-180,0xm12,283v107,4,125,-70,125,-176r0,-1189r180,0r0,1216v1,178,-60,292,-240,291v-45,0,-89,-2,-127,-9r0,-139v16,2,45,6,62,6","w":455},"k":{"d":"816,0r-366,-494r-132,109r0,385r-180,0r0,-1484r180,0r0,927r475,-525r211,0r-439,465r462,617r-211,0","w":1024},"l":{"d":"138,0r0,-1484r180,0r0,1484r-180,0","w":455},"m":{"d":"1195,-963v-184,6,-249,144,-249,336r0,627r-178,0r0,-686v2,-169,-31,-283,-198,-277v-182,7,-249,145,-249,336r0,627r-179,0r0,-851r-6,-231r170,0r8,185r3,0v59,-117,140,-206,316,-205v170,1,257,66,294,205r3,0v60,-119,151,-204,328,-205v236,-2,313,142,313,381r0,721r-178,0r0,-686v2,-169,-31,-283,-198,-277","w":1706},"n":{"d":"663,-1102v247,0,343,132,343,381r0,721r-181,0r0,-686v3,-178,-44,-284,-223,-277v-194,6,-280,136,-280,336r0,627r-180,0r0,-851r-6,-231r170,0r8,185r3,0v65,-121,159,-205,346,-205"},"o":{"d":"571,-1102v350,0,482,208,482,560v0,357,-151,562,-488,562v-339,0,-479,-216,-479,-562v0,-373,162,-560,485,-560xm563,-113v243,3,301,-176,301,-429v0,-250,-50,-427,-290,-427v-240,0,-299,177,-299,427v0,246,56,426,288,429"},"p":{"d":"655,-1101v314,2,398,238,398,555v0,317,-84,566,-398,566v-168,0,-281,-63,-336,-188r-5,0v4,49,3,115,4,170r0,423r-180,0r0,-1286r-6,-221r174,0v6,49,9,118,10,174r4,0v58,-123,155,-195,335,-193xm607,-113v226,0,257,-198,257,-429v0,-227,-33,-420,-255,-420v-238,0,-291,183,-291,434v0,241,56,415,289,415"},"q":{"d":"823,-178v-60,123,-156,201,-339,198v-306,-5,-397,-222,-398,-556v0,-188,32,-329,98,-424v66,-95,166,-142,300,-142v181,0,274,74,339,188r8,-160v1,-13,3,-20,4,-22r173,0v-1,11,-2,41,-4,89v-2,48,-3,117,-3,206r0,1226r-180,0r4,-603r-2,0xm530,-119v235,0,291,-184,291,-435v0,-241,-58,-415,-289,-415v-224,0,-257,196,-257,427v0,231,32,423,255,423"},"r":{"d":"552,-937v-188,7,-230,178,-230,373r0,564r-180,0r0,-830r-6,-252r170,0r8,221r4,0v42,-132,86,-242,257,-241v25,-1,55,5,73,10r0,165v-27,-7,-60,-11,-96,-10","w":682,"k":{".":113,",":113}},"s":{"d":"513,-963v-140,0,-238,30,-238,149v0,147,172,150,293,185v186,54,382,98,382,330v0,238,-191,316,-439,319v-246,3,-409,-74,-454,-274r159,-31v34,123,133,168,295,168v143,0,264,-28,264,-168v0,-162,-185,-164,-315,-204v-170,-53,-360,-93,-360,-307v0,-219,171,-304,413,-303v233,1,379,74,418,265r-162,20v-25,-109,-124,-149,-256,-149","w":1024},"t":{"d":"450,-127v39,0,68,-7,104,-14r0,133v-57,15,-108,24,-182,24v-144,0,-216,-82,-216,-245r0,-722r-125,0r0,-131r132,0r53,-242r120,0r0,242r200,0r0,131r-200,0r0,683v1,98,22,139,114,141","w":569},"u":{"d":"476,20v-247,0,-343,-131,-343,-381r0,-721r181,0r0,686v-3,178,44,284,223,277v194,-6,280,-136,280,-336r0,-627r180,0r0,851r6,231r-170,0r-8,-185r-3,0v-65,121,-159,205,-346,205"},"v":{"d":"613,0r-213,0r-393,-1082r192,0r255,758r52,183r74,-235r246,-706r191,0","w":1024,"k":{".":152,",":152}},"w":{"d":"1174,0r-209,0r-189,-765r-36,-169r-54,240r-178,694r-208,0r-303,-1082r178,0r197,792r29,141r47,-190r196,-743r193,0r235,933r45,-198r191,-735r176,0","w":1479,"k":{".":113,",":113}},"x":{"d":"801,0r-291,-444r-293,444r-194,0r385,-556r-367,-526r199,0r270,421r268,-421r201,0r-367,524r390,558r-201,0","w":1024},"y":{"d":"67,279v220,38,304,-112,367,-284r-429,-1077r192,0r253,670r73,216r95,-268r212,-618r190,0r-416,1082v-66,164,-130,321,-275,396v-68,36,-176,35,-262,18r0,-135","w":1024,"k":{".":152,",":152}},"z":{"d":"49,0r0,-137r661,-806r-621,0r0,-139r824,0r0,137r-662,806r699,0r0,139r-901,0","w":1024},"{":{"d":"417,81v1,134,39,214,168,215r63,0r0,129r-135,0v-180,-3,-264,-112,-264,-293r0,-361v1,-154,-69,-232,-215,-237r0,-127v145,-5,215,-83,215,-236r0,-362v0,-182,85,-293,264,-293r135,0r0,129r-63,0v-130,1,-168,80,-168,215r0,356v-2,143,-85,218,-194,254v116,30,194,111,194,254r0,357","w":684},"|":{"d":"183,434r0,-1918r166,0r0,1918r-166,0","w":532},"}":{"d":"430,132v-2,181,-84,290,-264,293r-132,0r0,-129r60,0v129,-1,169,-82,170,-215r0,-357v1,-146,81,-221,193,-256v-114,-31,-193,-111,-193,-252r0,-356v-1,-136,-40,-214,-170,-215r-60,0r0,-129r132,0v179,0,265,111,264,293r0,362v-1,154,70,231,217,236r0,127v-147,5,-217,82,-217,237r0,361","w":684},"~":{"d":"1104,-633v-69,50,-143,81,-260,80v-172,-1,-347,-117,-504,-115v-112,1,-181,41,-248,88r0,-143v89,-78,274,-103,422,-61v116,33,208,94,346,94v103,0,182,-43,244,-92r0,149","w":1196}}});
