/*!
 * The following copyright notice may not be removed under any circumstances.
 * 
 * Copyright:
 * A font for Linguists, designed by Eric Schiller, 1991.
 */
Cufon.registerFont({"w":574,"face":{"font-family":"Sapir","font-weight":400,"font-stretch":"normal","units-per-em":"1000","panose-1":"0 0 0 0 0 0 0 0 0 0","ascent":"800","descent":"-200","x-height":"12","bbox":"-533 -765.478 929 250.95","underline-thickness":"50","underline-position":"-100","unicode-range":"U+0020-U+007E"},"glyphs":{" ":{"w":287},"!":{"d":"179,-188r-63,0r-17,-216r0,-331r97,0r0,331xm149,12v-34,0,-65,-29,-65,-64v0,-34,30,-64,64,-64v34,0,64,30,64,64v0,31,-31,64,-63,64","w":296},"\"":{"d":"109,-735v38,0,45,43,41,81r-25,222v-3,16,-26,18,-29,2r-29,-249v1,-31,9,-56,42,-56xm259,-735v38,0,45,43,41,81r-25,222v-3,16,-26,18,-29,2r-29,-249v1,-31,9,-56,42,-56","w":370},"#":{"d":"507,-284r0,58r-108,0r-31,226r-59,0r31,-226r-134,0r-32,226r-59,0r32,-226r-106,0r0,-58r116,0r20,-146r-109,0r0,-58r118,0r30,-212r59,0r-30,212r132,0r30,-212r59,0r-30,212r96,0r0,58r-104,0r-20,146r99,0xm369,-430r-133,0r-20,146r133,0"},"$":{"d":"327,-67v60,-16,100,-106,54,-167v-13,-19,-31,-38,-54,-57r0,224xm267,-634v-51,14,-96,78,-52,130v12,16,29,32,52,50r0,-180xm498,-171v0,97,-83,163,-171,177r0,60r-70,0r0,-55v-75,-1,-141,-33,-181,-74r44,-57v49,33,68,57,137,59r0,-284v-59,-41,-99,-74,-121,-101v-22,-27,-33,-60,-33,-101v1,-89,79,-147,164,-159r0,-34r70,0r0,31v65,0,115,31,147,69r-47,48v-30,-22,-59,-42,-100,-48r0,243r97,83v43,44,64,92,64,143"},"%":{"d":"272,0r-71,0r452,-700r70,0xm123,-502v0,95,18,174,94,174v73,0,93,-82,93,-174v1,-85,-23,-160,-93,-160v-69,0,-95,76,-94,160xm616,-212v0,95,18,174,94,174v73,0,93,-82,93,-174v1,-85,-23,-160,-93,-160v-69,0,-95,76,-94,160xm395,-503v0,124,-65,225,-178,225v-113,0,-179,-102,-179,-224v0,-108,64,-210,179,-210v111,0,178,104,178,209xm888,-213v0,124,-65,225,-178,225v-113,0,-179,-102,-179,-224v0,-108,64,-210,179,-210v111,0,178,104,178,209","w":926},"&":{"d":"177,-206v0,79,66,152,156,152v73,0,140,-41,170,-85r-236,-212v-52,28,-90,75,-90,145xm602,-430v43,64,39,198,0,266r153,131r-89,45r-114,-105v-50,58,-129,103,-230,105v-136,2,-250,-81,-249,-209v1,-99,75,-168,150,-202v-47,-49,-91,-77,-91,-157v0,-91,87,-156,187,-156v51,0,99,16,143,48r-35,56v-27,-16,-58,-34,-99,-34v-84,0,-127,79,-76,142v79,98,204,197,296,288v30,-68,10,-166,-29,-218r-98,0r30,-62r300,0r-31,62r-118,0","w":815},"'":{"d":"101,-735v38,0,45,43,41,81r-25,222v-3,16,-26,18,-29,2r-29,-249v1,-31,9,-56,42,-56","w":204},"(":{"d":"298,207v-144,-97,-247,-243,-249,-461v-2,-230,106,-378,243,-481r44,44v-110,90,-195,249,-197,436v-2,173,94,354,198,423","w":352},")":{"d":"54,-735v144,97,247,243,249,461v2,230,-106,378,-243,481r-44,-44v110,-90,195,-249,197,-436v2,-173,-94,-354,-198,-423","w":352},"*":{"d":"254,-700r-9,130r121,-48r26,77r-127,32r84,101r-66,48r-70,-111r-70,111r-66,-48r84,-101r-127,-32r26,-77r121,48r-9,-130r82,0","w":426},"+":{"d":"254,-286r0,-220r66,0r0,220r219,0r0,66r-219,0r0,220r-66,0r0,-220r-219,0r0,-66r219,0"},",":{"d":"116,-98v22,-31,88,-20,85,25v-1,23,-11,43,-22,62r-109,187r-55,-22r66,-176v14,-39,26,-64,35,-76","w":287},"-":{"d":"291,-197r-249,0r0,-82r249,0r0,82","w":333},".":{"d":"144,12v-34,0,-65,-29,-65,-64v0,-34,30,-64,64,-64v34,0,64,30,64,64v0,31,-31,64,-63,64","w":287},"\/":{"d":"92,108r-66,0r271,-843r65,0","w":389},"0":{"d":"530,-364v0,195,-76,376,-243,376v-162,0,-243,-184,-243,-374v0,-166,79,-350,243,-350v164,0,243,183,243,348xm185,-136v48,102,159,104,204,1v58,-132,67,-508,-102,-507v-43,0,-74,25,-101,72v-51,90,-43,345,-1,434"},"1":{"d":"342,-712r0,712r-97,0r0,-633r-137,56r-24,-59r191,-76r67,0"},"2":{"d":"306,-712v112,0,204,73,203,182v0,41,-11,80,-34,118v-53,88,-215,244,-301,336r339,0r0,76r-469,0r0,-53r149,-154v91,-95,146,-164,173,-203v64,-92,39,-229,-76,-229v-69,0,-105,28,-153,72r-47,-43v45,-56,116,-102,216,-102"},"3":{"d":"399,-197v0,-115,-103,-149,-225,-142r0,-58v100,1,188,-47,188,-145v0,-130,-179,-113,-245,-57r-29,-59v116,-80,372,-85,372,106v0,82,-74,145,-127,169v101,26,170,72,170,184v0,120,-112,211,-249,211v-74,0,-121,-16,-171,-40r28,-61v35,19,85,31,141,31v85,0,147,-56,147,-139"},"4":{"d":"437,-700r0,429r85,0r0,70r-85,0r0,201r-94,0r0,-201r-323,0r0,-45r359,-454r58,0xm127,-271r216,0r0,-274"},"5":{"d":"391,-214v0,-126,-131,-197,-285,-192r87,-294r275,0r-26,76r-187,0r-44,153v169,14,279,105,285,250v6,167,-185,277,-368,219v-33,-10,-64,-26,-91,-49r34,-63v42,28,96,54,160,56v97,3,160,-69,160,-156"},"6":{"d":"294,12v-145,0,-239,-102,-239,-249v0,-245,202,-458,426,-475r0,66v-145,21,-261,123,-301,247v36,-21,84,-37,138,-37v126,0,210,87,210,222v0,119,-113,226,-234,226xm159,-206v0,85,54,150,132,150v86,1,133,-74,133,-162v0,-81,-46,-149,-127,-148v-95,1,-138,60,-138,160"},"7":{"d":"526,-700r0,75r-352,635r-90,-20r346,-614r-329,0r0,-76r425,0"},"8":{"d":"151,-185v-1,75,58,129,136,129v121,0,185,-152,91,-220v-30,-23,-67,-44,-109,-63v-63,34,-116,70,-118,154xm523,-190v5,124,-109,202,-238,202v-125,0,-234,-73,-234,-189v0,-102,69,-164,137,-202v-62,-27,-112,-78,-112,-161v0,-109,98,-172,217,-172v108,0,199,65,199,163v0,89,-66,123,-128,171v91,34,155,88,159,188xm392,-550v0,-60,-39,-102,-103,-102v-106,0,-149,120,-79,182v23,21,50,38,82,52v50,-32,100,-64,100,-132"},"9":{"d":"289,-712v145,0,230,100,230,249v0,245,-202,458,-426,475r0,-66v150,-23,263,-126,309,-254r-2,-2v-43,29,-92,44,-146,44v-127,0,-208,-99,-208,-219v0,-123,115,-227,243,-227xm415,-499v1,-94,-39,-144,-127,-145v-87,-1,-138,75,-138,164v0,80,47,148,128,146v100,-2,137,-54,137,-165"},":":{"d":"144,12v-34,0,-65,-29,-65,-64v0,-34,30,-64,64,-64v34,0,64,30,64,64v0,31,-31,64,-63,64xm144,-352v-34,0,-65,-29,-65,-64v0,-34,30,-64,64,-64v34,0,64,30,64,64v0,31,-31,64,-63,64","w":287},";":{"d":"112,-99v22,-31,88,-20,85,25v-1,23,-11,43,-22,62r-109,187r-55,-22r66,-176v14,-39,26,-64,35,-76xm144,-354v-34,0,-65,-29,-65,-64v0,-34,30,-64,64,-64v34,0,64,30,64,64v0,31,-31,64,-63,64","w":287},"<":{"d":"542,-56r0,64r-509,-234r0,-54r509,-234r0,64r-424,197"},"=":{"d":"539,-383r0,66r-504,0r0,-66r504,0xm539,-189r0,66r-504,0r0,-66r504,0"},">":{"d":"33,-56r424,-197r-424,-197r0,-64r509,234r0,54r-509,234r0,-64"},"?":{"d":"222,-735v115,-1,205,51,200,161v-7,154,-169,221,-191,372r-75,0v-7,-165,152,-218,157,-369v2,-54,-45,-96,-97,-94v-61,2,-91,25,-130,66r-45,-45v37,-48,105,-90,181,-91xm197,12v-34,0,-65,-29,-65,-64v0,-34,30,-64,64,-64v34,0,64,30,64,64v0,31,-31,64,-63,64","w":463},"@":{"d":"435,-474v-63,0,-118,95,-118,173v0,47,15,75,53,75v65,0,122,-83,118,-171v-2,-41,-14,-77,-53,-77xm428,-534v48,0,71,23,88,55r11,-42r75,0r-69,271v-6,28,19,56,56,54v68,-3,115,-128,112,-208v-5,-137,-111,-248,-281,-248v-170,0,-312,140,-312,322v0,167,128,285,301,285v87,0,142,-18,200,-47r28,48v-69,27,-144,52,-229,56v-222,9,-385,-156,-389,-344v-5,-224,180,-381,406,-381v200,0,351,120,351,309v0,136,-84,251,-205,258v-55,3,-121,-49,-111,-83r2,2v-32,27,-70,71,-124,70v-68,-1,-105,-64,-105,-139v0,-109,84,-238,195,-238","w":796},"A":{"d":"281,-700r74,0r261,700r-112,0r-72,-206r-267,0r-75,206r-94,0xm192,-276r217,0v-21,-57,-39,-110,-55,-158v-16,-48,-32,-102,-49,-162v-15,51,-31,97,-45,138v-14,41,-37,102,-68,182","w":612},"B":{"d":"422,-197v0,-118,-114,-142,-241,-133r0,260r94,0v80,0,147,-46,147,-127xm526,-203v0,123,-113,203,-245,203r-197,0r0,-700r217,0v100,-1,182,49,182,143v0,96,-71,163,-143,178v97,2,186,72,186,176xm181,-400v111,12,205,-40,205,-133v0,-65,-41,-97,-123,-97r-82,0r0,230"},"C":{"d":"48,-352v-2,-239,248,-428,511,-340v36,12,67,30,94,51r-40,60v-35,-28,-117,-61,-183,-61v-167,0,-275,123,-275,288v0,164,117,296,275,296v76,0,130,-21,177,-52r38,58v-50,35,-136,64,-220,64v-226,0,-375,-152,-377,-364","w":684},"D":{"d":"688,-371v4,234,-156,374,-396,371r-208,0r0,-700r224,0v239,-6,377,119,380,329xm581,-373v-1,-166,-98,-259,-271,-257r-129,0r0,560r108,0v201,-1,292,-99,292,-303","w":736},"E":{"d":"429,-700r0,70r-248,0r0,226r243,0r0,70r-243,0r0,264r291,0r0,70r-388,0r0,-700r345,0","w":497},"F":{"d":"429,-700r0,70r-248,0r0,266r243,0r0,70r-243,0r0,294r-97,0r0,-700r345,0","w":481},"G":{"d":"428,-58v63,0,101,-5,142,-25r0,-237r97,0r0,285v-67,24,-156,47,-242,47v-225,0,-376,-154,-377,-364v-2,-243,251,-427,520,-340v40,13,71,29,94,48r-40,58v-46,-32,-107,-56,-183,-56v-173,0,-284,119,-284,288v0,164,116,298,273,296","w":739},"H":{"d":"620,-700r0,700r-97,0r0,-348r-342,0r0,348r-97,0r0,-700r97,0r0,282r342,0r0,-282r97,0","w":704},"I":{"d":"181,0r-97,0r0,-700r97,0r0,700","w":265},"J":{"d":"18,131v62,-7,73,-81,73,-150r0,-681r97,0r0,694v3,124,-59,193,-170,196r0,-59","w":272},"K":{"d":"181,-700r0,313r303,-323r66,43r-271,285r307,355r-95,37r-308,-373r-2,363r-97,0r0,-700r97,0","w":593},"L":{"d":"84,0r0,-700r97,0r0,630r291,0r0,70r-388,0","w":481},"M":{"d":"844,-700r0,700r-97,0r0,-570v-78,183,-192,391,-283,570r-39,0r-209,-442v-25,-56,-41,-98,-50,-128r-2,570r-80,0r0,-700r104,0r175,365r94,205r296,-570r91,0","w":928},"N":{"d":"697,-700r0,700r-76,0r-341,-412v-64,-78,-101,-126,-114,-145r-2,557r-80,0r0,-700r72,0r364,436v48,59,80,99,95,122r2,-558r80,0","w":781},"O":{"d":"748,-362v0,208,-141,374,-350,374v-210,0,-350,-165,-350,-374v0,-194,155,-350,350,-350v196,0,350,155,350,350xm155,-362v1,158,77,304,243,304v165,0,242,-147,243,-304v0,-149,-86,-280,-243,-280v-156,0,-243,133,-243,280","w":796},"P":{"d":"395,-497v-1,-87,-53,-135,-147,-133r-67,0r0,630r-97,0r0,-700r176,0v143,-1,240,63,239,202v-1,139,-127,239,-289,225r0,-64v117,6,187,-46,185,-160","w":537},"Q":{"d":"748,-362v0,180,-97,293,-214,341r256,122r-44,65r-309,-154v-250,14,-389,-135,-389,-374v0,-194,155,-350,350,-350v196,0,350,155,350,350xm155,-362v1,158,77,304,243,304v165,0,242,-147,243,-304v0,-149,-86,-280,-243,-280v-156,0,-243,133,-243,280","w":796},"R":{"d":"383,-511v4,-111,-88,-127,-202,-119r0,270r55,0v102,4,144,-62,147,-151xm487,-520v-1,106,-49,159,-117,204r174,298r-98,30r-162,-302r-103,0r0,290r-97,0r0,-700r200,0v117,0,205,62,203,180","w":556},"S":{"d":"85,-547v-2,-96,99,-165,200,-165v74,0,132,23,173,70r-46,50v-31,-23,-74,-49,-121,-50v-64,-1,-109,36,-109,95v0,37,36,82,106,133v70,51,117,93,142,127v25,34,37,73,37,116v0,145,-176,221,-323,165v-35,-14,-66,-31,-91,-55r43,-58v50,32,81,60,152,61v73,1,123,-40,122,-115v0,-38,-11,-66,-30,-85v-34,-33,-197,-148,-226,-188v-18,-25,-29,-58,-29,-101","w":520},"T":{"d":"326,0r-97,0r0,-630r-224,0r0,-70r546,0r0,70r-225,0r0,630","w":556},"U":{"d":"350,12v-191,0,-276,-96,-276,-284r0,-428r97,0r0,424v0,139,47,218,179,221v119,2,174,-91,175,-204r0,-441r91,0r0,443v1,160,-103,269,-266,269","w":690},"V":{"d":"319,0r-65,0r-259,-692r99,-18r138,400r64,198r66,-192r149,-406r87,12","w":593},"W":{"d":"427,-700r80,0r89,300r81,291r104,-368r70,-233r78,14r-217,696r-86,0r-86,-292r-80,-286r-170,578r-86,0r-206,-690r92,-20r84,299v29,105,56,205,80,302r82,-287","w":927},"X":{"d":"617,-10r-105,20r-207,-326r-188,326r-89,-18r228,-373r-208,-307r103,-22r163,254r149,-254r90,12r-192,307","w":645},"Y":{"d":"305,0r-97,0r0,-303r-211,-387r105,-20r169,332r184,-332r86,12r-236,395r0,303","w":538},"Z":{"d":"568,-700r0,27r-405,609r414,0r0,64r-542,0r0,-34r407,-602r-340,0r0,-64r466,0","w":612},"[":{"d":"78,-735r225,0r0,53r-135,0r0,814r135,0r0,61r-225,0r0,-928","w":333},"\\":{"d":"26,-735r65,0r271,843r-66,0","w":389},"]":{"d":"30,-735r225,0r0,928r-225,0r0,-61r135,0r0,-814r-135,0r0,-53","w":333},"^":{"d":"-286,-639r-99,97r-88,0r155,-152r65,0r155,152r-89,0","w":0},"_":{"d":"500,150r-500,0r0,-50r500,0r0,50","w":500},"`":{"d":"-125,-630r-31,37r-150,-94v-17,-13,-42,-22,-42,-44v0,-60,63,-28,90,-6","w":0},"a":{"d":"429,-342v0,117,-17,258,22,342r-98,0v-11,-18,-14,-55,-14,-85v-43,40,-84,92,-157,97v-133,9,-188,-177,-94,-260v58,-51,165,-76,251,-105v2,-56,-47,-101,-100,-100v-66,1,-89,20,-131,54r-35,-45v92,-107,356,-98,356,102xm133,-143v0,46,31,85,72,85v90,0,138,-118,134,-235r-86,25v-80,24,-120,66,-120,125","w":500},"b":{"d":"162,-240v0,104,50,188,156,188v101,0,140,-112,140,-212v1,-93,-47,-186,-139,-184v-110,1,-158,88,-157,208xm318,12v-71,-2,-120,-34,-154,-78r-2,66r-90,0r0,-735r90,0r0,313v30,-50,96,-90,166,-90v85,0,142,29,177,82v115,173,20,447,-187,442","w":595},"c":{"d":"311,-54v53,-1,86,-12,122,-36r25,50v-38,28,-93,52,-151,52v-103,0,-171,-30,-211,-87v-129,-184,-20,-437,215,-437v53,0,98,14,134,41r-30,51v-125,-67,-278,7,-278,164v0,112,60,205,174,202","w":481},"d":{"d":"137,-260v-1,105,43,207,141,208v108,1,155,-103,155,-214v0,-96,-53,-182,-149,-182v-103,0,-147,82,-147,188xm271,-512v72,2,132,28,160,74r2,-297r90,0r0,735r-90,0r0,-79v-39,51,-87,91,-172,91v-140,0,-221,-119,-221,-268v0,-131,100,-259,231,-256","w":595},"e":{"d":"40,-260v0,-149,104,-250,237,-252v144,-3,192,125,193,268r-337,0v-3,97,73,194,169,192v53,-1,105,-19,137,-43r26,49v-55,39,-110,58,-166,58v-162,0,-259,-105,-259,-272xm388,-304v0,-80,-33,-144,-112,-144v-83,0,-137,69,-137,144r249,0","w":507},"f":{"d":"284,-668v-63,-21,-115,6,-115,78r0,90r120,0r0,52r-120,0r0,448r-90,0r0,-448r-80,0r0,-52r80,0r0,-61v-10,-133,115,-213,225,-153","w":296},"g":{"d":"137,-260v-1,105,43,207,141,208v108,1,155,-103,155,-214v0,-96,-53,-182,-149,-182v-103,0,-147,82,-147,188xm279,-512v67,2,128,34,152,81r2,-69r90,0r0,482v10,210,-162,303,-366,256v-34,-8,-65,-20,-94,-38r25,-59v50,29,107,44,179,45v137,1,177,-112,166,-265v-40,50,-86,90,-169,91v-143,1,-224,-118,-224,-268v0,-132,104,-259,239,-256","w":595},"h":{"d":"300,-446v-81,0,-136,58,-136,145r0,301r-90,0r0,-735r89,0r0,297v37,-41,101,-74,171,-74v119,0,178,67,177,190r0,322r-90,0r0,-303v0,-95,-40,-143,-121,-143","w":585},"i":{"d":"74,-500r90,0r0,500r-90,0r0,-500xm176,-665v-1,33,-20,61,-57,61v-38,0,-57,-26,-57,-61v0,-28,25,-53,57,-53v32,0,57,25,57,53","w":238},"j":{"d":"6,206v68,-16,68,-83,68,-166r0,-540r90,0r0,536v2,134,-47,209,-158,214r0,-44xm176,-665v-1,33,-20,61,-57,61v-38,0,-57,-26,-57,-61v0,-28,25,-53,57,-53v32,0,57,25,57,53","w":238},"k":{"d":"74,0r0,-735r90,0r0,437r15,0r196,-212r67,38r-178,186r211,255r-89,41r-220,-283r-2,273r-90,0","w":477},"l":{"d":"164,0r-90,0r0,-735r90,0r0,735","w":238},"m":{"d":"289,-442v-82,1,-125,57,-125,145r0,297r-90,0r0,-500r89,0r0,62v35,-42,88,-73,156,-74v77,-1,125,29,159,74v38,-36,107,-73,172,-74v109,-1,171,70,170,178r0,334r-90,0r0,-298v-1,-84,-24,-145,-110,-144v-85,1,-128,49,-128,141r0,301r-90,0r0,-298v0,-96,-38,-144,-113,-144","w":894},"n":{"d":"300,-446v-81,0,-136,58,-136,145r0,301r-90,0r0,-500r89,0r0,62v37,-41,101,-74,171,-74v119,0,178,67,177,190r0,322r-90,0r0,-303v0,-95,-40,-143,-121,-143","w":585},"o":{"d":"533,-256v0,150,-100,268,-247,268v-146,0,-246,-119,-246,-268v0,-147,108,-256,246,-256v137,0,247,110,247,256xm436,-256v0,-102,-44,-192,-150,-192v-104,0,-149,92,-149,192v0,108,38,204,149,204v111,0,150,-96,150,-204","w":573},"p":{"d":"164,-240v0,104,50,188,156,188v101,0,140,-112,140,-212v1,-93,-47,-186,-139,-184v-110,1,-158,88,-157,208xm320,12v-71,-2,-120,-34,-154,-78r-2,316r-90,0r0,-750r90,0r0,78v30,-50,96,-90,166,-90v85,0,142,29,177,82v115,173,20,447,-187,442","w":597},"q":{"d":"434,-266v0,-96,-53,-182,-149,-182v-104,0,-148,81,-148,188v-1,103,45,208,142,208v108,0,155,-103,155,-214xm271,-512v72,2,132,28,160,74r2,-62r90,0r0,750r-90,0r0,-329v-39,51,-87,91,-172,91v-140,0,-221,-119,-221,-268v0,-131,100,-259,231,-256","w":597},"r":{"d":"248,-426v-65,0,-85,72,-84,157r0,269r-90,0r0,-500r88,0r0,62v29,-30,58,-74,111,-74v27,0,55,16,83,49r-41,58v-26,-12,-36,-21,-67,-21","w":348},"s":{"d":"74,-318v-69,-124,80,-236,216,-182v22,8,40,20,54,34r-35,46v-29,-20,-52,-32,-92,-32v-37,0,-76,18,-73,57v4,54,80,86,116,117v47,40,92,72,93,149v1,113,-149,173,-261,124v-28,-12,-51,-27,-68,-46r44,-51v26,25,64,49,108,50v44,0,87,-25,85,-71v0,-25,-6,-42,-19,-55v-22,-21,-152,-110,-168,-140","w":389},"t":{"d":"243,12v-100,0,-148,-58,-148,-160r0,-300r-70,0r0,-52r70,0r0,-120r90,-30r0,150r131,0r0,52r-131,0r0,283v2,68,7,110,69,112v31,0,48,-6,69,-17r22,50v-33,21,-67,32,-102,32","w":345},"u":{"d":"281,-54v78,-1,126,-67,126,-154r0,-292r90,0r0,500r-89,0r0,-58v-47,39,-87,70,-161,70v-119,0,-178,-67,-177,-190r0,-322r90,0r0,302v0,96,40,144,121,144","w":571},"v":{"d":"268,0r-56,0r-207,-486r90,-24r79,200v27,71,51,140,73,206r74,-196r85,-210r79,18","w":490},"w":{"d":"364,-500r59,0r75,188v26,66,50,131,71,194v20,-73,42,-146,66,-220r56,-172r83,14r-176,496r-63,0r-101,-256r-49,-134r-61,168r-87,222r-59,0r-173,-488r88,-22r74,224v15,45,31,101,49,168v24,-69,51,-139,80,-212","w":779},"x":{"d":"494,-30r-86,40r-157,-220r-155,220r-71,-42r184,-235r-156,-203r86,-40r128,183r132,-183r70,31r-160,208","w":519},"y":{"d":"9,-485r90,-25r105,270v17,46,33,91,48,136r74,-196r85,-210r79,19r-257,579v-47,102,-96,172,-240,162r0,-64v58,3,93,-4,126,-38v25,-25,53,-84,86,-176","w":495},"z":{"d":"430,-500r0,39r-295,402r295,0r0,59r-420,0r0,-29r310,-413r-252,0r0,-58r362,0","w":450},"{":{"d":"72,-287v59,-24,76,-49,77,-128v1,-105,-10,-226,46,-275v32,-28,73,-45,127,-45r0,53v-47,6,-83,53,-83,110r0,141v-2,95,-19,122,-81,165v60,41,80,73,80,165r0,141v-1,59,34,102,83,110r0,53v-113,-1,-173,-64,-173,-185r0,-135v-1,-79,-16,-104,-76,-128r0,-42","w":352},"|":{"d":"96,0r0,-735r66,0r0,735r-66,0","w":259},"}":{"d":"113,-572v1,-59,-34,-102,-83,-110r0,-53v113,1,173,64,173,185r0,135v1,81,16,103,77,128r0,42v-59,23,-75,50,-76,128v-1,105,10,226,-46,275v-32,28,-73,45,-127,45r0,-53v47,-6,83,-53,83,-110r0,-141v2,-93,19,-124,79,-165v-60,-41,-80,-73,-80,-165r0,-141","w":352},"~":{"d":"-186,-633v49,0,62,-28,87,-63r42,35v-36,49,-56,91,-127,91v-83,0,-127,-64,-214,-61v-53,2,-66,34,-94,70r-41,-37v36,-51,63,-96,137,-96v78,0,138,61,210,61","w":3},"\u00a0":{"w":287}}});
